digraph Tree {
node [shape=box, style="filled", color="black"] ;
0 [label="hours-per-week <= 43.5\ngini = 0.3721\nsamples = 16495\nvalue = [19610, 6438]", fillcolor="#e58139ab"] ;
1 [label="hours-per-week <= 31.5\ngini = 0.292\nsamples = 11854\nvalue = [15432, 3331]", fillcolor="#e58139c8"] ;
0 -> 1 [labeldistance=2.5, labelangle=45, headlabel="True"] ;
2 [label="education_ Prof-school <= 0.5\ngini = 0.1275\nsamples = 2638\nvalue = [3866, 284]", fillcolor="#e58139ec"] ;
1 -> 2 ;
3 [label="gini = 0.118\nsamples = 2610\nvalue = [3840, 258]", fillcolor="#e58139ee"] ;
2 -> 3 ;
4 [label="gini = 0.5\nsamples = 28\nvalue = [26, 26]", fillcolor="#e5813900"] ;
2 -> 4 ;
5 [label="occupation_ Prof-specialty <= 0.5\ngini = 0.3301\nsamples = 9216\nvalue = [11566, 3047]", fillcolor="#e58139bc"] ;
1 -> 5 ;
6 [label="gini = 0.299\nsamples = 8142\nvalue = [10549, 2363]", fillcolor="#e58139c6"] ;
5 -> 6 ;
7 [label="gini = 0.4808\nsamples = 1074\nvalue = [1017, 684]", fillcolor="#e5813953"] ;
5 -> 7 ;
8 [label="capital-loss <= 1748.0\ngini = 0.4892\nsamples = 4641\nvalue = [4178, 3107]", fillcolor="#e5813941"] ;
0 -> 8 [labeldistance=2.5, labelangle=-45, headlabel="False"] ;
9 [label="sex_ Female <= 0.5\ngini = 0.4826\nsamples = 4421\nvalue = [4110, 2819]", fillcolor="#e5813950"] ;
8 -> 9 ;
10 [label="gini = 0.4943\nsamples = 3633\nvalue = [3137, 2532]", fillcolor="#e5813931"] ;
9 -> 10 ;
11 [label="gini = 0.3518\nsamples = 788\nvalue = [973, 287]", fillcolor="#e58139b4"] ;
9 -> 11 ;
12 [label="sex_ Male <= 0.5\ngini = 0.3091\nsamples = 220\nvalue = [68, 288]", fillcolor="#399de5c3"] ;
8 -> 12 ;
13 [label="gini = 0.48\nsamples = 16\nvalue = [10, 15]", fillcolor="#399de555"] ;
12 -> 13 ;
14 [label="gini = 0.289\nsamples = 204\nvalue = [58, 273]", fillcolor="#399de5c9"] ;
12 -> 14 ;
}