digraph Tree {
node [shape=box, style="filled", color="black"] ;
0 [label="occupation_ Prof-specialty <= 0.5\ngini = 0.3573\nsamples = 16441\nvalue = [19981, 6067]", fillcolor="#e58139b2"] ;
1 [label="relationship_ Husband <= 0.5\ngini = 0.3257\nsamples = 14343\nvalue = [18004, 4637]", fillcolor="#e58139bd"] ;
0 -> 1 [labeldistance=2.5, labelangle=45, headlabel="True"] ;
2 [label="capital-gain <= 7073.5\ngini = 0.1372\nsamples = 8605\nvalue = [12606, 1009]", fillcolor="#e58139eb"] ;
1 -> 2 ;
3 [label="gini = 0.1102\nsamples = 8456\nvalue = [12594, 783]", fillcolor="#e58139ef"] ;
2 -> 3 ;
4 [label="gini = 0.0958\nsamples = 149\nvalue = [12, 226]", fillcolor="#399de5f1"] ;
2 -> 4 ;
5 [label="occupation_ Farming-fishing <= 0.5\ngini = 0.4808\nsamples = 5738\nvalue = [5398, 3628]", fillcolor="#e5813954"] ;
1 -> 5 ;
6 [label="gini = 0.4855\nsamples = 5452\nvalue = [5024, 3563]", fillcolor="#e581394a"] ;
5 -> 6 ;
7 [label="gini = 0.2523\nsamples = 286\nvalue = [374, 65]", fillcolor="#e58139d3"] ;
5 -> 7 ;
8 [label="education-num <= 14.5\ngini = 0.4871\nsamples = 2098\nvalue = [1977, 1430]", fillcolor="#e5813947"] ;
0 -> 8 [labeldistance=2.5, labelangle=-45, headlabel="False"] ;
9 [label="capital-loss <= 1881.5\ngini = 0.4557\nsamples = 1720\nvalue = [1816, 983]", fillcolor="#e5813975"] ;
8 -> 9 ;
10 [label="gini = 0.4441\nsamples = 1663\nvalue = [1800, 898]", fillcolor="#e5813980"] ;
9 -> 10 ;
11 [label="gini = 0.2666\nsamples = 57\nvalue = [16, 85]", fillcolor="#399de5cf"] ;
9 -> 11 ;
12 [label="race_ Black <= 0.5\ngini = 0.3894\nsamples = 378\nvalue = [161, 447]", fillcolor="#399de5a3"] ;
8 -> 12 ;
13 [label="gini = 0.3741\nsamples = 364\nvalue = [144, 434]", fillcolor="#399de5aa"] ;
12 -> 13 ;
14 [label="gini = 0.4911\nsamples = 14\nvalue = [17, 13]", fillcolor="#e581393c"] ;
12 -> 14 ;
}